/*
 * dct.h
 *
 *  Created on: Feb 11, 2013
 *      Author: vicentsanzmarco
 */

#ifndef DCT_H_
#define DCT_H_

#include "ejpgl.h"

extern signed int weights[512];

void *dct( void *hnd, c4snet_data_t *Matrix, c4snet_data_t *color, c4snet_data_t *row, c4snet_data_t *col,c4snet_data_t * sample);
signed int weights[512] = {
16384,
16384,
16384,
16384,
16384,
16384,
16384,
16384,
16069,
13623,
9102,
3196,
-3196,
-9102,
-13623,
-16069,
15137,
6270,
-6270,
-15137,
-15137,
-6270,
6270,
15137,
13623,
-3196,
-16069,
-9103,
9102,
16069,
3196,
-13623,
11585,
-11585,
-11585,
11585,
11585,
-11585,
-11585,
11585,
9102,
-16069,
3196,
13623,
-13623,
-3197,
16069,
-9102,
6270,
-15137,
15137,
-6270,
-6270,
15137,
-15137,
6270,
3196,
-9103,
13623,
-16069,
16069,
-13623,
9102,
-3196,
16384,
16384,
16384,
16384,
16384,
16384,
16384,
16384,
16069,
13623,
9102,
3196,
-3196,
-9102,
-13623,
-16069,
15137,
6270,
-6270,
-15137,
-15137,
-6270,
6270,
15137,
13623,
-3196,
-16069,
-9103,
9102,
16069,
3196,
-13623,
11585,
-11585,
-11585,
11585,
11585,
-11585,
-11585,
11585,
9102,
-16069,
3196,
13623,
-13623,
-3197,
16069,
-9102,
6270,
-15137,
15137,
-6270,
-6270,
15137,
-15137,
6270,
3196,
-9103,
13623,
-16069,
16069,
-13623,
9102,
-3196,
16384,
16384,
16384,
16384,
16384,
16384,
16384,
16384,
16069,
13623,
9102,
3196,
-3196,
-9102,
-13623,
-16069,
15137,
6270,
-6270,
-15137,
-15137,
-6270,
6270,
15137,
13623,
-3196,
-16069,
-9103,
9102,
16069,
3196,
-13623,
11585,
-11585,
-11585,
11585,
11585,
-11585,
-11585,
11585,
9102,
-16069,
3196,
13623,
-13623,
-3197,
16069,
-9102,
6270,
-15137,
15137,
-6270,
-6270,
15137,
-15137,
6270,
3196,
-9103,
13623,
-16069,
16069,
-13623,
9102,
-3196,
16384,
16384,
16384,
16384,
16384,
16384,
16384,
16384,
16069,
13623,
9102,
3196,
-3196,
-9102,
-13623,
-16069,
15137,
6270,
-6270,
-15137,
-15137,
-6270,
6270,
15137,
13623,
-3196,
-16069,
-9103,
9102,
16069,
3196,
-13623,
11585,
-11585,
-11585,
11585,
11585,
-11585,
-11585,
11585,
9102,
-16069,
3196,
13623,
-13623,
-3197,
16069,
-9102,
6270,
-15137,
15137,
-6270,
-6270,
15137,
-15137,
6270,
3196,
-9103,
13623,
-16069,
16069,
-13623,
9102,
-3196,
16384,
16384,
16384,
16384,
16384,
16384,
16384,
16384,
16069,
13623,
9102,
3196,
-3196,
-9102,
-13623,
-16069,
15137,
6270,
-6270,
-15137,
-15137,
-6270,
6270,
15137,
13623,
-3196,
-16069,
-9103,
9102,
16069,
3196,
-13623,
11585,
-11585,
-11585,
11585,
11585,
-11585,
-11585,
11585,
9102,
-16069,
3196,
13623,
-13623,
-3197,
16069,
-9102,
6270,
-15137,
15137,
-6270,
-6270,
15137,
-15137,
6270,
3196,
-9103,
13623,
-16069,
16069,
-13623,
9102,
-3196,
16384,
16384,
16384,
16384,
16384,
16384,
16384,
16384,
16069,
13623,
9102,
3196,
-3196,
-9102,
-13623,
-16069,
15137,
6270,
-6270,
-15137,
-15137,
-6270,
6270,
15137,
13623,
-3196,
-16069,
-9103,
9102,
16069,
3196,
-13623,
11585,
-11585,
-11585,
11585,
11585,
-11585,
-11585,
11585,
9102,
-16069,
3196,
13623,
-13623,
-3197,
16069,
-9102,
6270,
-15137,
15137,
-6270,
-6270,
15137,
-15137,
6270,
3196,
-9103,
13623,
-16069,
16069,
-13623,
9102,
-3196,
16384,
16384,
16384,
16384,
16384,
16384,
16384,
16384,
16069,
13623,
9102,
3196,
-3196,
-9102,
-13623,
-16069,
15137,
6270,
-6270,
-15137,
-15137,
-6270,
6270,
15137,
13623,
-3196,
-16069,
-9103,
9102,
16069,
3196,
-13623,
11585,
-11585,
-11585,
11585,
11585,
-11585,
-11585,
11585,
9102,
-16069,
3196,
13623,
-13623,
-3197,
16069,
-9102,
6270,
-15137,
15137,
-6270,
-6270,
15137,
-15137,
6270,
3196,
-9103,
13623,
-16069,
16069,
-13623,
9102,
-3196,
16384,
16384,
16384,
16384,
16384,
16384,
16384,
16384,
16069,
13623,
9102,
3196,
-3196,
-9102,
-13623,
-16069,
15137,
6270,
-6270,
-15137,
-15137,
-6270,
6270,
15137,
13623,
-3196,
-16069,
-9103,
9102,
16069,
3196,
-13623,
11585,
-11585,
-11585,
11585,
11585,
-11585,
-11585,
11585,
9102,
-16069,
3196,
13623,
-13623,
-3197,
16069,
-9102,
6270,
-15137,
15137,
-6270,
-6270,
15137,
-15137,
6270,
3196,
-9103,
13623,
-16069,
16069,
-13623,
9102,
-3196
};

#endif /* DCT_H_ */
